1523958593.394051 -0.891351 0.057827 -1.183777 
1523958593.595214 -1.081461 0.096657 -1.115324 
1523958593.744931 -1.082086 0.095727 -1.124738 
1523958593.944558 -1.090024 0.096326 -1.126196 
1523958594.145888 -1.115247 0.098768 -1.122926 
1523958594.345985 -1.135082 0.099423 -1.126958 
1523958594.543875 -1.305515 0.125515 -1.062665 
1523958594.745505 -1.319966 0.124849 -1.065925 
1523958594.944199 -1.795291 0.171666 -0.982481 
1523958595.145307 -1.820269 0.172376 -0.982258 
1523958595.345536 -1.833311 0.171824 -0.984882 
1523958595.545618 -1.843840 0.170642 -0.989337 
1523958595.744428 -1.972410 0.148532 -1.037183 
1523958595.946011 -1.983968 0.147982 -1.042908 
1523958596.194941 -2.011192 0.148007 -1.043942 
1523958596.444862 -2.054444 0.148587 -1.037695 
1523958596.695148 -2.103965 0.150722 -1.032540 
1523958596.944816 -2.155262 0.155693 -1.017403 
1523958597.194950 -2.203112 0.161896 -1.006490 
1523958597.395085 -2.300194 0.240319 -1.007308 
1523958597.596264 -2.309421 0.242446 -1.010104 
1523958597.795321 -2.314672 0.244383 -1.011089 
1523958598.046092 -2.328984 0.248849 -1.007988 
1523958598.295562 -2.353037 0.256053 -1.006731 
1523958598.546654 -2.379051 0.262223 -1.003963 
1523958598.796145 -2.574005 0.323125 -1.018533 
1523958599.095814 -2.619684 0.331049 -1.004053 
1523958599.396433 -2.819652 0.367542 -1.039222 
1523958599.645960 -2.863167 0.372775 -1.029742 
1523958599.946339 -2.910845 0.380307 -1.012214 
1523958600.246290 -3.000928 0.393793 -0.973835 
1523958600.498008 -3.055790 0.403661 -0.942121 
1523958600.698143 -3.077579 0.406567 -0.933038 
1523958600.896787 -3.089450 0.408598 -0.928773 
1523958601.097955 -3.101107 0.410520 -0.924489 
1523958601.346851 -3.425544 0.471225 -0.730538 
1523958601.547666 -3.433160 0.473726 -0.721539 
1523958601.748345 -3.433510 0.475332 -0.714701 
1523958601.947088 -3.915515 0.578272 -0.385178 
1523958602.147143 -3.897446 0.576795 -0.379867 
1523958602.347314 -3.872844 0.573544 -0.373736 
1523958602.598719 -3.851218 0.570328 -0.341434 
1523958602.848447 -4.049441 0.620894 -0.109632 
1523958603.098173 -4.005975 0.611939 -0.059811 
1523958603.349174 -3.968561 0.604228 -0.008214 
1523958603.649316 -3.890221 0.587279 0.064504 
1523958603.947780 -3.633410 0.535529 0.387073 
1523958604.249624 -3.515330 0.510730 0.426495 
1523958604.548800 -3.408473 0.488846 0.469408 
1523958604.848112 -3.311554 0.468286 0.514790 
1523958605.148464 -3.024819 0.364648 0.971743 
1523958605.448574 -2.993550 0.356245 0.983420 
1523958605.749494 -2.970699 0.349986 0.992391 
1523958606.050561 -2.950174 0.346113 1.008344 
1523958606.349768 -2.934368 0.343671 1.016585 
1523958606.699943 -2.911019 0.342630 1.024253 
1523958606.999035 -2.884543 0.345095 1.042100 
1523958607.299776 -2.865746 0.346710 1.068741 
1523958607.599297 -2.842579 0.347033 1.104045 
1523958607.950824 -2.811573 0.345118 1.160136 
1523958608.299475 -2.755871 0.338753 1.220364 
1523958608.749852 -2.656622 0.321116 1.290433 
