1523958593.394051 -0.055250 0.017422 -0.025552 
1523958593.595214 -0.054592 0.017108 -0.027224 
1523958593.744931 -0.053652 0.017165 -0.028411 
1523958593.944558 -0.052404 0.017382 -0.030006 
1523958594.145888 -0.051058 0.017719 -0.031687 
1523958594.345985 -0.050420 0.017867 -0.033136 
1523958594.543875 -0.049740 0.018012 -0.033283 
1523958594.745505 -0.048709 0.018212 -0.032552 
1523958594.944199 -0.048459 0.018303 -0.031278 
1523958595.145307 -0.047185 0.018846 -0.029133 
1523958595.345536 -0.045883 0.019298 -0.027198 
1523958595.545618 -0.044522 0.019419 -0.025375 
1523958595.744428 -0.043370 0.019680 -0.023235 
1523958595.946011 -0.042970 0.020676 -0.020640 
1523958596.194941 -0.042623 0.022161 -0.017040 
1523958596.444862 -0.041968 0.023319 -0.013222 
1523958596.695148 -0.041216 0.024428 -0.008338 
1523958596.944816 -0.040082 0.024041 -0.004412 
1523958597.194950 -0.038905 0.023502 -0.001276 
1523958597.395085 -0.038222 0.023327 0.000779 
1523958597.596264 -0.037641 0.023216 0.001493 
1523958597.795321 -0.036995 0.023202 0.001795 
1523958598.046092 -0.036301 0.023261 0.001850 
1523958598.295562 -0.035572 0.023337 0.001374 
1523958598.546654 -0.034932 0.023413 0.000901 
1523958598.796145 -0.034458 0.023493 0.000495 
1523958599.095814 -0.034152 0.023552 0.000465 
1523958599.396433 -0.034050 0.023643 0.000814 
1523958599.645960 -0.033862 0.023816 0.001170 
1523958599.946339 -0.033822 0.023918 0.001920 
1523958600.246290 -0.034067 0.024124 0.002714 
1523958600.498008 -0.034460 0.024397 0.003172 
1523958600.698143 -0.034882 0.024316 0.003840 
1523958600.896787 -0.035158 0.024384 0.004161 
1523958601.097955 -0.035422 0.024169 0.004687 
1523958601.346851 -0.035614 0.023476 0.004956 
1523958601.547666 -0.035640 0.023139 0.004923 
1523958601.748345 -0.035377 0.022707 0.004264 
1523958601.947088 -0.034810 0.022377 0.003008 
1523958602.147143 -0.034272 0.022552 0.001582 
1523958602.347314 -0.033810 0.023334 -0.000212 
1523958602.598719 -0.033374 0.024124 -0.002138 
1523958602.848447 -0.033062 0.024503 -0.004260 
1523958603.098173 -0.032899 0.024720 -0.005666 
1523958603.349174 -0.032824 0.024640 -0.006543 
1523958603.649316 -0.032317 0.024794 -0.006713 
1523958603.947780 -0.031441 0.025166 -0.006257 
1523958604.249624 -0.030846 0.025570 -0.005585 
1523958604.548800 -0.030350 0.025769 -0.004515 
1523958604.848112 -0.029757 0.025966 -0.003547 
1523958605.148464 -0.029406 0.025924 -0.002955 
1523958605.448574 -0.029089 0.025991 -0.002023 
1523958605.749494 -0.029196 0.025932 -0.000742 
1523958606.050561 -0.029273 0.025693 0.001007 
1523958606.349768 -0.029038 0.025412 0.002329 
1523958606.699943 -0.029160 0.024876 0.003355 
1523958606.999035 -0.029264 0.024774 0.003359 
1523958607.299776 -0.029445 0.024928 0.002855 
1523958607.599297 -0.029530 0.025446 0.001999 
1523958607.950824 -0.029678 0.025934 0.001366 
1523958608.299475 -0.029882 0.026032 0.001057 
1523958608.749852 -0.030223 0.026026 0.001211 
